digraph Tree {
node [shape=box, style="filled, rounded", color="black", fontname=helvetica] ;
edge [fontname=helvetica] ;
0 [label="Have you ever been skydiving?_No <= 0.5\ngini = 0.5\nsamples = 279\nvalue = [228, 211]", fillcolor="#e5813913"] ;
1 [label="gini = 0.34\nsamples = 19\nvalue = [22, 6]", fillcolor="#e58139b9"] ;
0 -> 1 [labeldistance=2.5, labelangle=45, headlabel="True"] ;
2 [label="Do you ever drink alcohol?_Yes <= 0.5\ngini = 0.5\nsamples = 260\nvalue = [206, 205]", fillcolor="#e5813901"] ;
0 -> 2 [labeldistance=2.5, labelangle=-45, headlabel="False"] ;
3 [label="Location (Census Region)_West South Central <= 0.5\ngini = 0.45\nsamples = 55\nvalue = [56, 29]", fillcolor="#e581397b"] ;
2 -> 3 ;
5 [label="Do you eat steak?_No <= 0.5\ngini = 0.43\nsamples = 52\nvalue = [56, 26]", fillcolor="#e5813989"] ;
3 -> 5 ;
7 [label="Location (Census Region)_New England <= 0.5\ngini = 0.36\nsamples = 39\nvalue = [46, 14]", fillcolor="#e58139b1"] ;
5 -> 7 ;
9 [label="Education_Graduate degree <= 0.5\ngini = 0.3\nsamples = 34\nvalue = [44, 10]", fillcolor="#e58139c5"] ;
7 -> 9 ;
11 [label="gini = 0.14\nsamples = 26\nvalue = [37, 3]", fillcolor="#e58139ea"] ;
9 -> 11 ;
12 [label="Gender_Female <= 0.5\ngini = 0.5\nsamples = 8\nvalue = [7, 7]", fillcolor="#e5813900"] ;
9 -> 12 ;
55 [label="gini = 0.47\nsamples = 4\nvalue = [3, 5]", fillcolor="#399de566"] ;
12 -> 55 ;
56 [label="How do you like your steak prepared?_Medium <= 0.5\ngini = 0.44\nsamples = 4\nvalue = [4, 2]", fillcolor="#e581397f"] ;
12 -> 56 ;
57 [label="gini = 0.0\nsamples = 2\nvalue = [3, 0]", fillcolor="#e58139ff"] ;
56 -> 57 ;
58 [label="gini = 0.44\nsamples = 2\nvalue = [1, 2]", fillcolor="#399de57f"] ;
56 -> 58 ;
10 [label="Education_Some college or Associate degree <= 0.5\ngini = 0.44\nsamples = 5\nvalue = [2, 4]", fillcolor="#399de57f"] ;
7 -> 10 ;
29 [label="gini = 0.44\nsamples = 3\nvalue = [2, 1]", fillcolor="#e581397f"] ;
10 -> 29 ;
30 [label="gini = 0.0\nsamples = 2\nvalue = [0, 3]", fillcolor="#399de5ff"] ;
10 -> 30 ;
8 [label="Do you ever drive above the speed limit?_No <= 0.5\ngini = 0.5\nsamples = 13\nvalue = [10, 12]", fillcolor="#399de52a"] ;
5 -> 8 ;
25 [label="Location (Census Region)_Pacific <= 0.5\ngini = 0.49\nsamples = 8\nvalue = [9, 7]", fillcolor="#e5813939"] ;
8 -> 25 ;
43 [label="gini = 0.44\nsamples = 5\nvalue = [8, 4]", fillcolor="#e581397f"] ;
25 -> 43 ;
44 [label="Age_18-29 <= 0.5\ngini = 0.38\nsamples = 3\nvalue = [1, 3]", fillcolor="#399de5aa"] ;
25 -> 44 ;
45 [label="gini = 0.0\nsamples = 2\nvalue = [0, 3]", fillcolor="#399de5ff"] ;
44 -> 45 ;
46 [label="gini = 0.0\nsamples = 1\nvalue = [1, 0]", fillcolor="#e58139ff"] ;
44 -> 46 ;
26 [label="Education_Graduate degree <= 0.5\ngini = 0.28\nsamples = 5\nvalue = [1, 5]", fillcolor="#399de5cc"] ;
8 -> 26 ;
27 [label="gini = 0.0\nsamples = 4\nvalue = [0, 5]", fillcolor="#399de5ff"] ;
26 -> 27 ;
28 [label="gini = 0.0\nsamples = 1\nvalue = [1, 0]", fillcolor="#e58139ff"] ;
26 -> 28 ;
6 [label="gini = 0.0\nsamples = 3\nvalue = [0, 3]", fillcolor="#399de5ff"] ;
3 -> 6 ;
4 [label="Do you ever gamble?_Yes <= 0.5\ngini = 0.5\nsamples = 205\nvalue = [150, 176]", fillcolor="#399de526"] ;
2 -> 4 ;
13 [label="Do you ever smoke cigarettes?_No <= 0.5\ngini = 0.5\nsamples = 101\nvalue = [81, 76]", fillcolor="#e5813910"] ;
4 -> 13 ;
37 [label="Household Income_$150,000+ <= 0.5\ngini = 0.4\nsamples = 8\nvalue = [8, 3]", fillcolor="#e581399f"] ;
13 -> 37 ;
39 [label="gini = 0.32\nsamples = 7\nvalue = [8, 2]", fillcolor="#e58139bf"] ;
37 -> 39 ;
40 [label="gini = 0.0\nsamples = 1\nvalue = [0, 1]", fillcolor="#399de5ff"] ;
37 -> 40 ;
38 [label="Household Income_$25,000 - $49,999 <= 0.5\ngini = 0.5\nsamples = 93\nvalue = [73, 73]", fillcolor="#e5813900"] ;
13 -> 38 ;
41 [label="gini = 0.5\nsamples = 82\nvalue = [66, 60]", fillcolor="#e5813917"] ;
38 -> 41 ;
42 [label="gini = 0.45\nsamples = 11\nvalue = [7, 13]", fillcolor="#399de576"] ;
38 -> 42 ;
14 [label="Gender_Male <= 0.5\ngini = 0.48\nsamples = 104\nvalue = [69, 100]", fillcolor="#399de54f"] ;
4 -> 14 ;
15 [label="How do you like your steak prepared?_Irrelevant <= 0.5\ngini = 0.5\nsamples = 54\nvalue = [44, 47]", fillcolor="#399de510"] ;
14 -> 15 ;
17 [label="Location (Census Region)_West North Central <= 0.5\ngini = 0.49\nsamples = 42\nvalue = [41, 30]", fillcolor="#e5813944"] ;
15 -> 17 ;
51 [label="gini = 0.49\nsamples = 39\nvalue = [36, 29]", fillcolor="#e5813932"] ;
17 -> 51 ;
52 [label="How do you like your steak prepared?_Rare <= 0.5\ngini = 0.28\nsamples = 3\nvalue = [5, 1]", fillcolor="#e58139cc"] ;
17 -> 52 ;
53 [label="gini = 0.0\nsamples = 2\nvalue = [5, 0]", fillcolor="#e58139ff"] ;
52 -> 53 ;
54 [label="gini = 0.0\nsamples = 1\nvalue = [0, 1]", fillcolor="#399de5ff"] ;
52 -> 54 ;
18 [label="gini = 0.26\nsamples = 12\nvalue = [3, 17]", fillcolor="#399de5d2"] ;
15 -> 18 ;
16 [label="Do you ever drive above the speed limit?_Yes <= 0.5\ngini = 0.44\nsamples = 50\nvalue = [25, 53]", fillcolor="#399de587"] ;
14 -> 16 ;
19 [label="Do you eat steak?_Yes <= 0.5\ngini = 0.44\nsamples = 5\nvalue = [4, 2]", fillcolor="#e581397f"] ;
16 -> 19 ;
23 [label="gini = 0.0\nsamples = 1\nvalue = [0, 2]", fillcolor="#399de5ff"] ;
19 -> 23 ;
24 [label="gini = 0.0\nsamples = 4\nvalue = [4, 0]", fillcolor="#e58139ff"] ;
19 -> 24 ;
20 [label="Do you ever smoke cigarettes?_No <= 0.5\ngini = 0.41\nsamples = 45\nvalue = [21, 51]", fillcolor="#399de596"] ;
16 -> 20 ;
21 [label="How do you like your steak prepared?_Medium <= 0.5\ngini = 0.46\nsamples = 12\nvalue = [9, 5]", fillcolor="#e5813971"] ;
20 -> 21 ;
47 [label="gini = 0.35\nsamples = 7\nvalue = [7, 2]", fillcolor="#e58139b6"] ;
21 -> 47 ;
48 [label="Education_Bachelor degree <= 0.5\ngini = 0.48\nsamples = 5\nvalue = [2, 3]", fillcolor="#399de555"] ;
21 -> 48 ;
49 [label="gini = 0.0\nsamples = 1\nvalue = [1, 0]", fillcolor="#e58139ff"] ;
48 -> 49 ;
50 [label="gini = 0.38\nsamples = 4\nvalue = [1, 3]", fillcolor="#399de5aa"] ;
48 -> 50 ;
22 [label="Location (Census Region)_Middle Atlantic <= 0.5\ngini = 0.33\nsamples = 33\nvalue = [12, 46]", fillcolor="#399de5bc"] ;
20 -> 22 ;
31 [label="Location (Census Region)_New England <= 0.5\ngini = 0.29\nsamples = 29\nvalue = [9, 43]", fillcolor="#399de5ca"] ;
22 -> 31 ;
35 [label="gini = 0.26\nsamples = 28\nvalue = [8, 43]", fillcolor="#399de5d0"] ;
31 -> 35 ;
36 [label="gini = 0.0\nsamples = 1\nvalue = [1, 0]", fillcolor="#e58139ff"] ;
31 -> 36 ;
32 [label="Have you ever cheated on your significant other?_No <= 0.5\ngini = 0.5\nsamples = 4\nvalue = [3, 3]", fillcolor="#e5813900"] ;
22 -> 32 ;
33 [label="gini = 0.0\nsamples = 1\nvalue = [0, 2]", fillcolor="#399de5ff"] ;
32 -> 33 ;
34 [label="gini = 0.38\nsamples = 3\nvalue = [3, 1]", fillcolor="#e58139aa"] ;
32 -> 34 ;
}